<?xml version="1.0"?>
<opencv_storage>
<stage7>
  <maxWeakCount>13</maxWeakCount>
  <stageThreshold>-5.7412892580032349e-01</stageThreshold>
  <weakClassifiers>
    <_>
      <internalNodes>
        0 -1 3019936 -2.4483279048581608e-05</internalNodes>
      <leafValues>
        -4.0698230266571045e-01 4.5324966311454773e-01</leafValues></_>
    <_>
      <internalNodes>
        0 -1 238719 -3.7061821669340134e-02</internalNodes>
      <leafValues>
        2.9280385375022888e-01 -3.1379044055938721e-01</leafValues></_>
    <_>
      <internalNodes>
        0 -1 4891 1.2519542360678315e-04</internalNodes>
      <leafValues>
        1.0645338892936707e-01 -8.0904453992843628e-01</leafValues></_>
    <_>
      <internalNodes>
        0 -1 2901296 -2.4800803657853976e-05</internalNodes>
      <leafValues>
        -6.9217789173126221e-01 1.0602031648159027e-01</leafValues></_>
    <_>
      <internalNodes>
        0 -1 70482 -1.1280162725597620e-03</internalNodes>
      <leafValues>
        5.3321558237075806e-01 -1.6584607958793640e-01</leafValues></_>
    <_>
      <internalNodes>
        0 -1 68680 2.6322465855628252e-03</internalNodes>
      <leafValues>
        -2.5349760055541992e-01 3.4222912788391113e-01</leafValues></_>
    <_>
      <internalNodes>
        0 -1 3021202 -2.7000733098248020e-05</internalNodes>
      <leafValues>
        -6.8293476104736328e-01 1.0760111361742020e-01</leafValues></_>
    <_>
      <internalNodes>
        0 -1 679168 -1.7090473556891084e-03</internalNodes>
      <leafValues>
        2.6423156261444092e-01 -2.9217183589935303e-01</leafValues></_>
    <_>
      <internalNodes>
        0 -1 2876814 4.0744249417912215e-05</internalNodes>
      <leafValues>
        1.0812301188707352e-01 -7.1168029308319092e-01</leafValues></_>
    <_>
      <internalNodes>
        0 -1 111377 -8.0862329923547804e-05</internalNodes>
      <leafValues>
        -5.2788209915161133e-01 1.3581828773021698e-01</leafValues></_>
    <_>
      <internalNodes>
        0 -1 3014143 -1.3659991091117263e-03</internalNodes>
      <leafValues>
        4.6182307600975037e-01 -1.6230900585651398e-01</leafValues></_>
    <_>
      <internalNodes>
        0 -1 1159116 1.2230517342686653e-02</internalNodes>
      <leafValues>
        -1.9936770200729370e-01 3.9540821313858032e-01</leafValues></_>
    <_>
      <internalNodes>
        0 -1 2146579 -2.5627131108194590e-03</internalNodes>
      <leafValues>
        3.6789146065711975e-01 -2.2319285571575165e-01</leafValues></_></weakClassifiers></stage7>
</opencv_storage>
