<?xml version="1.0"?>
<opencv_storage>
<stage4>
  <maxWeakCount>10</maxWeakCount>
  <stageThreshold>-5.9899300336837769e-01</stageThreshold>
  <weakClassifiers>
    <_>
      <internalNodes>
        0 -1 118741 -2.0768569811480120e-05</internalNodes>
      <leafValues>
        -3.8712307810783386e-01 4.7425475716590881e-01</leafValues></_>
    <_>
      <internalNodes>
        0 -1 2936417 -8.4903649985790253e-03</internalNodes>
      <leafValues>
        5.0832891464233398e-01 -2.2678531706333160e-01</leafValues></_>
    <_>
      <internalNodes>
        0 -1 109268 -4.2047840543091297e-03</internalNodes>
      <leafValues>
        4.6065965294837952e-01 -2.5762194395065308e-01</leafValues></_>
    <_>
      <internalNodes>
        0 -1 2233873 -1.2952368706464767e-02</internalNodes>
      <leafValues>
        3.4287005662918091e-01 -3.7789750099182129e-01</leafValues></_>
    <_>
      <internalNodes>
        0 -1 110085 4.3374799133744091e-05</internalNodes>
      <leafValues>
        2.3008340597152710e-01 -6.5748882293701172e-01</leafValues></_>
    <_>
      <internalNodes>
        0 -1 1205265 -1.1916264891624451e-02</internalNodes>
      <leafValues>
        3.2866486907005310e-01 -3.6035704612731934e-01</leafValues></_>
    <_>
      <internalNodes>
        0 -1 1621285 -3.5215201787650585e-03</internalNodes>
      <leafValues>
        5.0017118453979492e-01 -2.6622694730758667e-01</leafValues></_>
    <_>
      <internalNodes>
        0 -1 94321 -4.8798890784382820e-03</internalNodes>
      <leafValues>
        5.1343274116516113e-01 -2.1057747304439545e-01</leafValues></_>
    <_>
      <internalNodes>
        0 -1 119359 -2.3515047359978780e-05</internalNodes>
      <leafValues>
        -5.8206415176391602e-01 1.9189603626728058e-01</leafValues></_>
    <_>
      <internalNodes>
        0 -1 1839384 -1.1564482003450394e-02</internalNodes>
      <leafValues>
        3.4160664677619934e-01 -3.4414389729499817e-01</leafValues></_></weakClassifiers></stage4>
</opencv_storage>
