<?xml version="1.0"?>
<opencv_storage>
<stage5>
  <maxWeakCount>10</maxWeakCount>
  <stageThreshold>-4.9519765377044678e-01</stageThreshold>
  <weakClassifiers>
    <_>
      <internalNodes>
        0 -1 1185665 -1.4671826735138893e-02</internalNodes>
      <leafValues>
        6.4685595035552979e-01 1.6617529094219208e-02</leafValues></_>
    <_>
      <internalNodes>
        0 -1 23846 -4.7231618314981461e-02</internalNodes>
      <leafValues>
        4.1283082962036133e-01 -2.8705370426177979e-01</leafValues></_>
    <_>
      <internalNodes>
        0 -1 116441 -1.0282991570420563e-04</internalNodes>
      <leafValues>
        -6.8630057573318481e-01 1.6073167324066162e-01</leafValues></_>
    <_>
      <internalNodes>
        0 -1 2083418 -8.9504532516002655e-03</internalNodes>
      <leafValues>
        2.7130714058876038e-01 -3.9058521389961243e-01</leafValues></_>
    <_>
      <internalNodes>
        0 -1 2363275 5.8335894718766212e-03</internalNodes>
      <leafValues>
        -3.8974529504776001e-01 3.0337586998939514e-01</leafValues></_>
    <_>
      <internalNodes>
        0 -1 2327546 -5.0481144338846207e-02</internalNodes>
      <leafValues>
        3.3448943495750427e-01 -3.1136724352836609e-01</leafValues></_>
    <_>
      <internalNodes>
        0 -1 2606835 2.6125889271497726e-02</internalNodes>
      <leafValues>
        -2.0927041769027710e-01 5.5982857942581177e-01</leafValues></_>
    <_>
      <internalNodes>
        0 -1 2867918 -4.5325085520744324e-03</internalNodes>
      <leafValues>
        3.3555227518081665e-01 -3.2105991244316101e-01</leafValues></_>
    <_>
      <internalNodes>
        0 -1 39803 3.3703139051795006e-03</internalNodes>
      <leafValues>
        -2.5832867622375488e-01 4.0285113453865051e-01</leafValues></_>
    <_>
      <internalNodes>
        0 -1 967638 -3.8689348846673965e-02</internalNodes>
      <leafValues>
        3.8367620110511780e-01 -3.5814628005027771e-01</leafValues></_></weakClassifiers></stage5>
</opencv_storage>
